solver_type L1R_LR
nr_class 2
label 1 0
nr_feature 133
bias -1
w
0.1035527308760774 
0.04983592656323283 
-0.1295770508949482 
-0.12333487212309 
-0.009856913355577205 
0.04905465636629324 
-0.001153296226287174 
0.01232508049934553 
-0.008154650412652458 
0.008946242328079375 
0.005460783878118277 
0.0003937769771984188 
0.0006654177164163996 
-0.04415153238468964 
0.0003630694500061043 
-0.004038816917688114 
0.03364606357592706 
0.03454830243172122 
0.01723628301214996 
0.02385433849296721 
-0.06005489897384594 
0.05268711702613833 
-0.0123920281394697 
-0.003161606099143271 
-0.01039944701981842 
-0.005472589636496086 
-0.005075348482292455 
-0.003708865609665346 
0.01681738271068515 
0.008174957025544478 
-0.004087849901222963 
-0.003466219490598869 
-0.0007528012317939961 
-0.006457667042143712 
-0.0109882941811038 
0.01067210964108723 
0.0009718710322553434 
-0.006542145416976218 
0.009737008537785476 
0.01527271835421955 
-0.001442733092152014 
0.02540632982993477 
-0.001145583484605122 
-0.003256970755440928 
-0.0004980377090688621 
-0.01383824375270903 
0.03072845065455311 
0.01594813707355749 
-0.006376089687145682 
0.05527534681971117 
0.02568432663764317 
0.2587159154709678 
-0.1662040006012232 
0.02508959584796573 
0.01428025458969758 
-0.02367014057292685 
-0.01807970251230452 
-0.04365471846741886 
-0.2744422174553297 
0.003708543238530355 
0.0339939090329426 
-0.05511107702620462 
0.005232431335502549 
0.002514058502607283 
-0.01907628201967711 
0.03543825331708098 
-0.03600347838819727 
-0.07165403365238668 
0.03557465622956336 
0.01853183353636223 
0.06586687957448362 
0.7327779920242717 
0.01679693888875137 
0.00887300094221825 
0.03510459954274558 
-0.01645015887768132 
0.03155194223993951 
-0.02464496673268133 
-0.07483538078934882 
-0.04028232119055154 
0.06943687281314417 
-0.04760080327751507 
0.1264657822196008 
-0.02883942790911864 
-0.103200489346707 
0.3836296425143459 
-0.2580414233538641 
-0.01198397041430649 
0.1448322305633037 
-0.03527121170216829 
0.03798780704762739 
0.00218945981281833 
0.03131672229258272 
-0.04087524669793198 
0.02622646865459937 
-0.06121676358221943 
0.03394825174062954 
-0.02309629160423289 
-0.01490369428769361 
0.1497841144228082 
0.0146671861376163 
0.008027840919178166 
-0.001748363055517699 
-0.03829657827392483 
0.03156811363071863 
-0.05987207752190284 
-0.03642104747310073 
0.02654385040916071 
0.0009195847751800679 
0.03670752974760721 
0.09866052418134409 
-0.02157933028753538 
-0.01787787875115506 
-0.01377063797633366 
-0.002574660703314558 
0.001849833040347552 
-0.05015002584887968 
-0.03828422772965911 
-0.01364723393204106 
-0.03514279367664572 
-0.03190222864799864 
-0.01100965711203811 
0.2099123554893783 
0.03199365739122982 
-0.09167744327518251 
-0.08534341729705994 
0.06495156819080483 
-0.01285464951567635 
0.06565812010926196 
0.003293551270310658 
0.001297841503808205 
-0.06043282566053695 
-0.01450873880915867 
