solver_type L1R_LR
nr_class 2
label 1 0
nr_feature 258
bias -1
w
0.06038362503807396 
0.03482217907280754 
-0.1233896764983107 
0 
-0.03311405474699539 
0.06310097896445517 
-0.001475625428220482 
0.01385403296463204 
-0.008534934339258995 
0.01437038067952767 
0.003538376899817907 
-9.339817412341873e-05 
-0.001370036505078664 
-0.05315405590116143 
-0.0009383777092150867 
-0.005385505845186593 
0 
0 
0 
0 
0 
0 
-0.009609358568511193 
-0.003404195238389294 
-0.01208989628128138 
-0.004115864762508343 
-0.008197720300608415 
-0.001942846672721753 
0.01292347063730647 
0.009389096852444184 
-0.001530329056022475 
-0.004002941543244832 
-0.003445947147158102 
-0.008156889559219282 
-0.01388093526586121 
0.01270718712314212 
0.001918918016553971 
-0.00475821034798901 
0.01046736779803506 
0.01337294872293873 
-0.002334633645005904 
0.03236767529050055 
-0.0009122053551954178 
-0.003448403095639743 
1.447136737330825e-05 
-0.01879292137791857 
0.02537454193081036 
0 
0 
0 
0 
0 
0 
-0.04212020352330114 
0.02511356319644218 
0.01297923607271456 
0.0139759741941257 
-0.03498401191833479 
-0.03633223291884488 
-0.02311027121910636 
-0.02556290431580164 
-0.03427983360072657 
0.001016795031901814 
-0.01049318200660717 
-0.007124951376960705 
-0.006893023113061934 
0.03894681679339491 
-0.03109498670985292 
-0.2848079677166332 
0.06426368426492621 
-0.09442447149830659 
0.01940896853944066 
0.02779259071949349 
0.05204702412512899 
0.001111621189912133 
0.01404059904819004 
0.03741268648105755 
-0.02260415311312617 
-0.0193524488060666 
0.005745437291590442 
0.004451487370812198 
0.06810794090264419 
0.01036618759315966 
-0.008696100791152678 
0.01345584231670435 
-0.01339714865174891 
-0.01333272993847017 
0.01746503988746722 
0.01473734802467027 
-6.914242694465206e-05 
0.05786303988050997 
0.03214247774432683 
0.03512234831976842 
0.01339005850953409 
-0.03603112635060749 
0.05973309926139881 
-0.08691500107109768 
0.003608344882187481 
0.04025152054137648 
0.01915848120646618 
0.02901451780905696 
0.01979519601518056 
-0.009394825295833815 
0.07473678568395853 
0.02703863498675654 
0.7490822882953536 
-0.03405521771055308 
-0.01012152563505786 
0.03367542602389979 
0.01027044405770446 
0.009449402626116626 
-0.01575772529182537 
0.02447543236575385 
0.009230356467407424 
0.002756702511289997 
-0.03546297322171355 
0.00697819116103777 
-0.006123656497668821 
0.002687896185292407 
0.02976572249521441 
0.01768137585529543 
-0.05341517662079653 
-0.0321525662966862 
-0.06824952405989577 
0.07863930611185985 
-0.03422919487281655 
0.02678971321135253 
0.001242029098378475 
0.05170079250673016 
0.02581712653195 
-0.04755921231075187 
0.1075949809547709 
0.0330592007102895 
0.01124309030968383 
-0.03807291280698057 
-0.01322372566200967 
-0.04258249238725365 
-0.006600821389511128 
-0.01272832628323843 
0.007954055032408992 
-0.08435908752187689 
0.3589983957927227 
-0.2467514347472465 
-0.01913392494692955 
0.008271686632057284 
-0.01099921507500791 
-0.03151400696893696 
-0.00478983558545028 
0.1499155156963593 
-0.02737532414946103 
-0.03836016901440169 
0.007775933706804396 
-0.01433251930342716 
0.02134404843681765 
-0.01151223790975908 
0.03279236560558609 
0.3653700040569979 
0.007238843156194026 
0.07903437898159937 
-0.05012205410269699 
0.01852046118146778 
-0.04257822070529255 
-0.05249030163444741 
0.01704323479693471 
0.00240189345370892 
0.02177795261719837 
-0.0162077142655125 
0.01345155860627956 
-0.01331782131056221 
0.1689679164960641 
-0.04229968088631188 
0.081041933503677 
0.009524817700158913 
-0.01111985833421434 
-0.03023132293814482 
0.002750512564375621 
-0.007963620083425122 
-0.03470438755953571 
0.02976839630092117 
0.01018133956876073 
0.01275481754179434 
-0.06407999280261946 
-0.008149488700756312 
-0.05379721004960735 
0.0199085844886686 
0.03912253518611985 
-0.001844998398565712 
-0.004325903568517911 
-0.01219297758936999 
0.03088931848370713 
-0.02663721614050304 
0.09725216268618189 
0.02016476922336473 
-0.01924134355069262 
-0.005766581752197421 
-0.008443318251178819 
-0.02417601535527168 
-0.07787529562437644 
-0.00708664840833408 
-0.008939724135726742 
0.01325032185178552 
0.03355580066232181 
0.01532702764111557 
0.01294829573339528 
-0.008986598421886571 
0.02221643809327786 
-0.05294054486426573 
-0.04834709939776406 
-0.01875827034756059 
-0.01358410150462764 
0.01100852595322376 
0.02269372515430687 
0.02261836857613948 
-0.03609809402172327 
-0.006892086445205241 
0.008742924882911479 
0.02044551016250103 
0.01184951800243963 
-0.01560440884565118 
0.04762240321848026 
-0.03442500121257871 
-0.006806444900920402 
-0.01684346734069612 
0.02266267920639217 
-0.01697986546971293 
-0.003762841479010217 
0.03301790024732232 
-0.04345026262298083 
0.208009303898152 
0.01517836086749552 
-0.008918888859083176 
-0.0899715439093759 
0.03242697419357283 
-0.01265337207643654 
-0.07451141647969789 
0.06580378215858339 
0.03604490181298949 
-0.01833257476295462 
-0.01492624489634908 
0.01221377973313209 
0.01016747552111586 
0.004858821907160696 
-0.008587333814683427 
0.007494751890546532 
-0.008375885816606417 
0.03846454593535165 
-0.02496774195512182 
0.004052938456704127 
-0.01924107081656445 
0.03694687088067738 
-0.001203299408555508 
-0.03867550678864504 
0.002344070194846204 
0.02090928607970784 
-0.0511475580389739 
-0.01897963076744479 
0.01975680170438891 
0.01223323330551094 
